<?xml version="1.0" encoding="UTF-8"?>
<!--(Comment generated by ADAPA) PMML processed by ADAPA (Version : 4.4)-->
<PMML version="4.4" xmlns="http://www.dmg.org/PMML-4_4" xmlns:xsi="http://www.w3.org/2001/XMLSchema-instance" xsi:schemaLocation="http://www.dmg.org/PMML-4_4 http://www.dmg.org/pmml/v4-4/pmml-4-4.xsd">
 <Header copyright="Copyright (c) 2020 user" description="Linear Regression Model">
  <Extension name="user" value="user" extender="SoftwareAG PMML Generator"/>
  <Application name="SoftwareAG PMML Generator" version="2.1.0"/>
  <Timestamp>2020-01-16 12:46:54</Timestamp>
 </Header>
 <DataDictionary numberOfFields="4">
  <DataField name="savings" optype="continuous" dataType="double"/>
  <DataField name="salary" optype="continuous" dataType="double"/>
  <DataField name="age" optype="continuous" dataType="double"/>
  <DataField name="factor(retired)" optype="categorical" dataType="string">
   <Value value="No"/>
   <Value value="Yes"/>
  </DataField>
 </DataDictionary>
 <RegressionModel modelName="lm_Model" functionName="regression" algorithmName="least squares">
  <MiningSchema>
   <MiningField name="savings" usageType="predicted" invalidValueTreatment="returnInvalid"/>
   <MiningField name="salary" usageType="active" invalidValueTreatment="returnInvalid"/>
   <MiningField name="age" usageType="active" invalidValueTreatment="returnInvalid"/>
   <MiningField name="factor(retired)" usageType="active" invalidValueTreatment="returnInvalid"/>
  </MiningSchema>
  <Output>
   <OutputField name="Predicted_savings" optype="continuous" dataType="double" feature="predictedValue"/>
  </Output>
  <RegressionTable intercept="16197.9724746218">
   <NumericPredictor name="salary" exponent="1" coefficient="0.678636707604533"/>
   <NumericPredictor name="age" exponent="1" coefficient="183.564140180554"/>
   <CategoricalPredictor name="factor(retired)" value="No" coefficient="0"/>
   <CategoricalPredictor name="factor(retired)" value="Yes" coefficient="-18804.5663635856"/>
  </RegressionTable>
 </RegressionModel>
</PMML>
